,0,1,2,3,4,5,6,7,8,9,10,11,12,13,14,15,16,17,18,19,20,21,22,23,24,25,26,27,28,29,30,31,32,33,34,35,36,37,38,39,40,41,42,43,44,45,46,47,48,49,50,51,52,53,54,55,56,57,58,59,60,61,62,63,64,65,66,67,68,69,70,71,72,73,74,75,76,77,78,79,80,81,82,83,84,85,86,87,88,89,90,91,92,93,94,95,96,97,98,99,100,101,102,103,104,105,106,107,108,109,110,111,112,113,114,115,116,117,118,119,120,121,122,123,124,125,126,127,128,129,130,131,132,133,134,135,136,137,138,139,140,141,142,143,144,145,146,147,148,149,150,151,152,153,154,155,156,157,158,159,160,161,162,163,164,165,166,167,168,169,170,171,172,173,174,175,176,177,178,179,180,181,182,183,184,185,186,187,188,189,190,191,192,193,194,195,196,197,198,199,200,201,202,203,204,205,206,207,208,209,210,211,212,213,214,215,216,217,218,219,220,221,222,223,224,225,226,227,228,229,230,231,232,233,234,235,236,237,238,239,240,241,242,243,244,245,246,247,248,249,250,251,252,253,254,255,256,257,258,259,260,261,262,263,264,265,266,267,268,269,270,271,272,273,274,275,276,277,278,279,280,281,282,283,284,285,286,287,288,289,290,291,292,293,294,295,296,297,298,299
Original_Spock,-0.0196114758,0.175926497,-0.146237736,-0.0756128151,0.0550981158,0.012696614,-0.00652995872,-0.0944715008,-0.0456694426,2.1989979,-0.150989259,0.0607121389,0.101101293,-0.0289228138,-0.142806224,-0.0854055935,-0.0673199645,1.12829412,-0.187904858,-0.0200731306,0.00366661921,-0.0320021107,-0.0511374573,-0.0256283384,0.000840563657,0.0265346901,-0.0871941242,-0.0640988642,0.0752274357,-0.0548401195,-0.0550412585,0.054387605,-0.0578182904,0.0760731289,0.030389742,-0.0574389575,0.0397002363,0.062299442,-0.0481247472,-0.0709434414,-0.0140261587,0.0033280257,0.0522805508,-0.0817951352,0.058434329,0.0134554359,-0.140999527,0.000710568314,-0.00127357178,0.0065115419,-0.00412749967,0.0244648388,-0.00744647289,0.00197856999,0.0381923746,0.00434226997,-0.00761462792,-0.0623461069,0.0407545267,-0.0617453585,-0.0422418428,-0.0114339458,0.0281765428,0.163550249,-0.00858519646,-0.0437604254,-0.015741119,0.0608785911,0.0184362674,0.115060924,0.0381461594,0.0111859473,0.18691141,-0.0190208262,0.0861719144,0.0124718766,0.0624295102,-0.082507911,-0.0414448004,0.209757786,-0.0538974462,0.0495254957,-0.122220142,0.022095278,0.0530940159,-0.263284428,0.0880049764,-0.163167345,0.209851366,0.0641188157,-0.0752804031,0.033769935,-0.0387689732,0.0470317424,0.0955596573,-0.0759190389,-0.0367064666,-0.0827751379,-0.0876908482,0.00826711446,-0.0295586036,0.0355719965,-0.0850331342,-0.0367597623,0.0755246324,-0.740230042,0.0678126773,-0.000396664018,0.0177130597,0.0382474298,0.0386778099,-0.120187211,0.106737566,-0.122759848,0.0231691931,-0.0058581822,0.0154898569,-0.024647566,-0.0397559907,-0.0626496127,0.0553967831,-0.0225528312,0.0393928374,0.0140945214,-0.0164167772,0.0588645286,-0.0355632353,-0.134601077,0.0232950679,-0.012630637,0.0168030495,-0.0465083968,-0.122703795,0.00372609022,0.0754498884,0.0593106092,0.00760364118,-0.018293796,0.00826552899,-0.0231759027,-1.16135158,0.13970474,0.117448057,0.0186994978,0.0297211889,0.00369849823,-0.0700882878,0.0197972459,-0.01741692,-0.0693961988,-0.0261726004,0.0188128824,0.106257609,0.0540290868,-0.0361750033,0.000412967355,-0.0807977416,-0.0164213908,0.00027680005,-0.0281854747,0.0244303785,0.013251377,-0.0347711266,-0.0448681329,-0.0440664817,-0.110004235,0.0844156053,-0.0416583279,0.121331893,0.0113673459,-0.00915929868,-0.0192639854,0.0382949055,-0.0934833902,-0.0654227744,0.0714762605,-0.020278514,-0.0330848181,-0.0310223378,-0.0633776786,-0.00809914489,-0.0358320936,-0.0774838695,-0.0827025801,-0.0315134487,-0.0442981027,-0.0267959034,-0.0334078814,0.0761093487,0.0315279871,0.0295086889,0.0273957803,-0.0544642266,0.0457138984,0.0107254349,0.0962133338,0.00389925445,-0.107583174,-0.0159625689,0.19547542,-0.0442964942,-0.04345711,-0.0472726004,0.0143688567,0.160400236,0.0234170053,0.0424973871,-0.0155780183,0.0209140412,0.00447952296,-0.0585948332,-0.0834146271,-0.0582321363,-0.112277232,0.0878256565,0.105602409,-0.0412075827,0.0555029477,-0.139827153,0.0449555902,0.0514878611,0.00399030782,-0.0282638524,0.0654324908,0.0254936499,-0.0189037011,-0.031006657,0.0870516347,-0.0190240431,-0.0165843323,-0.0741112658,0.0102393415,0.0856762671,0.0962738051,-0.0773704635,-0.0532599068,-0.0269937976,-0.0656697019,-0.0840469472,0.0462527278,0.058187454,0.0506799107,0.00466105116,0.0739204307,0.104668093,-0.130883482,-0.0630316373,-0.0777690586,-0.138544564,0.128435924,0.0780252692,-0.0411099363,-0.0344074908,-0.0252920939,0.0396294479,0.176506303,0.0814235819,-0.0620311647,-0.0344572906,0.031006204,0.100298181,0.128764273,0.0178733801,0.0598667214,0.0104685514,-0.0587159467,-0.0260243533,0.0771107602,0.33569291,0.0342872571,0.0611630777,-0.00353953355,-0.0543745765,-0.124541124,-0.114494551,0.0274434972,0.0125232824,0.067304891,0.0177051947,0.17240692,0.201914036,0.00530737264,0.0298071822,-0.100315855,-0.0556608784,-0.0850326681,0.0760430081,-0.0968987329,0.165178795,-0.0216223838,-0.150493041,0.0289033778,-0.0534124147,-0.0539174009,0.00511414087,0.0117078182,-0.0405710544,-0.021621724,-0.0201188074,0.00948975102
Original_Kirk,-0.0323238326,0.185568126,-0.161972408,-0.0935240077,0.074485167,0.0013074049,-0.00393927287,-0.12305682,-0.0362475637,2.17778286,-0.190396159,0.0473891902,0.110803708,-0.0395987271,-0.172253097,-0.0712619469,-0.0639099289,1.07883685,-0.196113711,-0.0109102658,0.0448931506,-0.00834392172,-0.0309704932,-0.0274365758,-0.015998605,0.0208995896,-0.112704028,-0.0557767698,0.10765918,-0.0719231192,-0.0442564212,0.0653318726,-0.0680179807,0.0839137561,0.0444923076,-0.0499355998,0.0535501235,0.0868754879,-0.0491671683,-0.0585025677,-0.0305505768,0.00395360169,0.0308272042,-0.101852647,0.0495330894,0.051815115,-0.153263763,-0.0200232077,0.00108907246,0.0113077285,-0.0131852793,0.0254909445,0.00905427198,-0.0107334296,0.0581759049,0.000862447455,-0.0231500882,-0.0618007578,0.0374615446,-0.0615404542,-0.0612787576,-0.0298351533,0.0185119556,0.16952908,0.045808407,-0.0606332346,-0.027301775,0.0883423097,0.0350971559,0.114490328,0.0398124633,0.0236492508,0.227890153,-0.0161449069,0.0953005232,0.0390516443,0.0865865989,-0.0909192536,-0.0490191735,0.226685354,-0.0499148134,0.0553174177,-0.131778803,0.0310297445,0.0261097962,-0.236136342,0.137939228,-0.225758013,0.256960012,0.0565404517,-0.0942864099,0.0182492443,-0.0337831187,0.0518829587,0.105562236,-0.0487019769,-0.0449817515,-0.107244439,-0.0819501666,0.00707073887,-0.031244925,0.0465636281,-0.0749213049,-0.0507637324,0.0869061501,-0.642292768,0.10951762,-0.0217611559,-0.00127813768,0.0445972012,0.0595938083,-0.149915839,0.141729411,-0.127418389,0.0516054264,-0.00920829157,0.0306762842,-0.0333969413,-0.0470392217,-0.0531683995,0.076460062,-0.0382678524,0.0441741056,0.0106648464,0.00391797183,0.0568418272,-0.0374305935,-0.151020879,0.0464318931,-0.0257884991,-0.00502381224,-0.0551385047,-0.110625782,0.0121200209,0.0705890597,0.0581969801,0.00351507732,-0.00549925647,-0.0164291432,-0.033840147,-1.31614314,0.127755579,0.105153045,0.0039796336,0.0288916224,-0.00232568726,-0.0747387209,0.0566704499,-0.0499678416,-0.0775222783,-0.0188580575,0.0340494407,0.0915025307,0.0368846734,-0.0287222963,-0.00368053834,-0.0644021407,-0.0544557745,0.0109766817,-0.0111591615,-0.000855942334,0.032602078,-0.0784916232,-0.0388422592,-0.0218550184,-0.112768914,0.0897937749,-0.0646690184,0.130293648,0.0296225214,-0.0243288876,-0.0226302909,0.0432574233,-0.0870426347,-0.0649305359,0.0877978266,-0.0289733767,-0.0070776567,-0.0256892308,-0.0555169269,0.00501113976,-0.0439341679,-0.0960052061,-0.0875149413,-0.00450551091,-0.0238320706,-0.026818662,-0.0600580051,0.0816139862,0.0412747037,0.0397698923,0.0174887709,-0.0544341399,0.0164377905,0.0186837607,0.116869382,-0.00805807849,-0.119058986,0.0326472559,0.221127467,-0.0578785478,-0.0534326629,-0.0440718043,-0.0188375417,0.164019282,0.0252961501,0.0508457262,-0.020916908,0.0323443375,-0.0116733398,-0.0637677916,-0.0982787672,-0.0657859632,-0.0996276714,0.0945556204,0.102753384,-0.0495338756,0.0489750412,-0.175727604,0.0449841099,0.0439814556,0.00555063427,-0.0516719063,0.0635224279,0.0321331242,-0.0216251357,-0.047690807,0.0997379326,-0.0253741385,-0.0402573545,-0.102024174,0.00109622681,0.0997626496,0.0946665763,-0.0810556382,-0.0563013843,-0.0130330742,-0.087045867,-0.0831470467,0.062222826,0.0664541776,0.0419853501,0.00938657567,0.0860534139,0.118733723,-0.150912139,-0.0685156917,-0.0642467235,-0.157819792,0.160077434,0.0901161049,-0.0582871715,-0.0569016562,-0.0163135657,0.0393226171,0.180305249,0.0728534726,-0.0654328832,-0.039350186,0.0320648892,0.0768307803,0.135549168,0.0358941473,0.0489996448,0.0374907004,-0.0779293189,-0.0311599731,0.0872258184,0.33722606,0.0759096848,0.045338934,-0.0166541117,-0.0460126951,-0.125123994,-0.121573208,0.0412102457,0.0192649902,0.0522505106,0.0200778447,0.169773471,0.180786207,-0.019716238,0.0122068064,-0.0955032172,-0.0499693736,-0.0868308511,0.110588692,-0.104250553,0.143760431,-0.0312835142,-0.143897778,0.0222758727,-0.0547243232,-0.0546774158,0.0312804867,-0.0216828861,-0.0454638682,-0.0143949092,0.0022905188,0.0361704255
Janeway,-0.0134193595,0.173012006,-0.175452926,-0.079238263,0.0694043645,0.00723306347,-0.00725337275,-0.108533739,-0.0349747746,2.1320385,-0.185896907,0.0587732217,0.116437518,-0.0438610713,-0.160894404,-0.0596812983,-0.0720005635,1.0703082,-0.200198942,-0.0219538276,0.0516319126,-0.0122835018,-0.0301324139,-0.0154460594,-0.0227800179,0.0304778006,-0.0971259972,-0.0741325937,0.106450595,-0.0799097076,-0.0500491099,0.0596259913,-0.0515289239,0.0738409735,0.0549967728,-0.0539801598,0.0625415201,0.0790620609,-0.0441553503,-0.0701505452,-0.0354371877,0.0114653227,0.0256723742,-0.0995531414,0.0444618905,0.0487821165,-0.15532479,-0.0181491159,-0.0123361337,0.00526735151,-0.0261393554,0.0115315748,0.0131017871,-0.00646264941,0.0555655829,0.00401531837,-0.0216141687,-0.0651541324,0.0359199978,-0.0515075826,-0.0530887149,-0.0462068427,0.00202118954,0.173982885,0.0395834248,-0.0593599206,-0.0203827123,0.0840620857,0.0426337035,0.124789939,0.0555379324,0.0446312965,0.231859504,-0.0130536658,0.0996825589,0.0371185259,0.0954716632,-0.0898713887,-0.0543857639,0.213689262,-0.0420635743,0.0508224632,-0.140763152,0.0213926354,0.0271402604,-0.21726576,0.0870845869,-0.201827449,0.260603356,0.0607112614,-0.103565083,0.0181348583,-0.0417220504,0.0551670966,0.0801566029,-0.0206671114,-0.0401543626,-0.0975991311,-0.0630787608,0.0181304363,-0.0402485426,0.0459370332,-0.067711184,-0.0566819031,0.096797549,-0.644557242,0.113818219,-0.0155096911,-0.00112631009,0.0499262554,0.0539203674,-0.163096319,0.151573371,-0.10764845,0.0479300227,-0.011002402,0.0197641725,-0.0237397333,-0.0477796357,-0.0485041652,0.0876801977,-0.0547630211,0.0375599488,0.00021979953,0.0244970126,0.0633765071,-0.0400104559,-0.138514223,0.0378255149,-0.0201081516,-0.00407985004,-0.040351,-0.120705804,0.0417276631,0.0797690469,0.0481400694,0.00391839543,-0.00751576951,-0.0154235672,-0.0232037438,-1.27586961,0.113538314,0.092012496,-0.000407583867,0.0263434824,-0.026374199,-0.101183396,0.0709729375,-0.044237393,-0.0727816778,-0.0260189797,0.0538574883,0.0798928222,0.0224362188,-0.042044154,-0.0208476588,-0.0630309965,-0.0370984505,0.00858796168,-0.0296713051,-0.0188167198,0.0377140246,-0.0692504304,-0.0442532899,-0.0244159777,-0.106527804,0.0856528972,-0.0575857951,0.140241882,0.0207833868,-0.0236156453,-0.0233091109,0.046949261,-0.10866907,-0.0564537818,0.0777987414,-0.0368537212,-0.00756962091,-0.0232789993,-0.0473522476,0.00757404662,-0.0423677714,-0.103109159,-0.083819782,-0.00448355593,-0.0342294644,-0.0287293456,-0.063471416,0.0659131793,0.0540975433,0.0451749939,0.0071664012,-0.0661475508,0.0143629996,0.0387128698,0.110328043,-0.0113018872,-0.11832427,0.0201403762,0.209547903,-0.0364574923,-0.0650974798,-0.0429479546,-0.0208768527,0.175867654,0.0230957105,0.0502103388,-0.0124889309,0.0359666703,-0.000612351993,-0.0515259435,-0.107517049,-0.0721454558,-0.116727409,0.0878379031,0.115355034,-0.0526777696,0.0396898454,-0.186277545,0.0459188434,0.0540150461,-0.00412185075,-0.0488450606,0.0588621992,0.0243822821,-0.0196147401,-0.0352198433,0.0882089632,-0.029406642,-0.0379583201,-0.10625046,-0.00546934462,0.103688693,0.0966032398,-0.0605118825,-0.0571004147,-0.00957388243,-0.0883613451,-0.0859612966,0.0708736376,0.0758409657,0.0403897669,0.0133727992,0.100982978,0.114500883,-0.164637218,-0.0676686488,-0.0543523177,-0.14677102,0.169501469,0.0710303574,-0.0728351787,-0.0703085929,-0.0157096838,0.0460564882,0.182779001,0.0651265763,-0.0705417958,-0.0438936588,0.0246300096,0.0740413971,0.149582439,0.0425430675,0.0394791702,0.0604153859,-0.0742705276,-0.0285728353,0.0886238687,0.347425532,0.0736819165,0.0675421409,-0.015130774,-0.0570171916,-0.140833551,-0.107863717,0.040495736,0.017041262,0.0490833657,0.0231832435,0.184194342,0.16775791,-0.0181023903,0.0147111086,-0.0887486532,-0.0511209709,-0.0888314159,0.106121066,-0.103175945,0.142810401,-0.00981312445,-0.143981686,0.0328081237,-0.0498807456,-0.0507131595,0.0436632181,-0.0309726389,-0.0509908393,-0.0122974997,0.0172185633,0.0522908746
Archer,-0.0120175899,0.17428441,-0.186135044,-0.0910946805,0.0733647203,-0.00297321529,-0.00794760944,-0.110609842,-0.0399859583,2.20052412,-0.194651071,0.0639154579,0.121056866,-0.0445889523,-0.169361875,-0.0607728094,-0.0731854375,1.04497259,-0.203967829,-0.0250943438,0.062778431,-0.0132746363,-0.026335008,-0.0108446889,-0.0349498981,0.0237241226,-0.0992932709,-0.0810296114,0.112601846,-0.091460438,-0.0571499285,0.0695971553,-0.0490128947,0.0722170417,0.0624275786,-0.0428807977,0.0723540262,0.0882729427,-0.0466034434,-0.0748899644,-0.0378180698,0.0187381671,0.0249677071,-0.109424481,0.0617777537,0.0562673855,-0.169344209,-0.0308102861,-0.00819854566,0.00531318971,-0.0415668731,0.0156417926,0.0177492524,-0.0143842167,0.0722188193,-0.00389080133,-0.0247929589,-0.0767233861,0.0387684248,-0.0511358117,-0.0581226366,-0.0653269525,-0.00135294233,0.191099859,0.0508188143,-0.0706521611,-0.0228738567,0.0924051679,0.0463271301,0.137685881,0.0527249975,0.0473126846,0.251099467,-0.0119615087,0.0975997947,0.049157937,0.108786568,-0.0964421855,-0.0682730098,0.215768346,-0.0372135973,0.0533622798,-0.147275447,0.012164293,0.020167868,-0.206897009,0.091168231,-0.23137724,0.271050309,0.0636133066,-0.115646031,0.0109979967,-0.0502697654,0.0544655334,0.0890866783,-0.014302699,-0.0361795955,-0.110684154,-0.0522956021,0.0185348159,-0.0494224832,0.0564089317,-0.0596634206,-0.0640610489,0.10613786,-0.624818835,0.120495524,-0.0216920532,-0.0054270536,0.0477345709,0.064770993,-0.186862441,0.160414321,-0.102417554,0.0533644247,-0.00927227241,0.0195581649,-0.020536616,-0.0493911267,-0.046393974,0.0944144307,-0.0695334447,0.0449255888,-0.0133845756,0.0377654349,0.0641859443,-0.0440371282,-0.152718305,0.0413034062,-0.0300022868,-0.0119153322,-0.0386074797,-0.125882842,0.0548448809,0.0891272626,0.0382441936,0.00448671174,-0.00266074086,-0.0253897793,-0.018319404,-1.36491311,0.118894689,0.09963417,0.00267674105,0.0293798007,-0.0433546636,-0.116728766,0.0836433671,-0.0426146554,-0.0761123453,-0.0250304654,0.0606097013,0.0685326677,0.0143982376,-0.0501557666,-0.0279928086,-0.0651977993,-0.0372434075,0.0114253913,-0.0344876815,-0.0282429212,0.0384906332,-0.0741762975,-0.0496278352,-0.0251627045,-0.105049621,0.0847171324,-0.0674581723,0.151527502,0.020833387,-0.0299094349,-0.0305056636,0.0475236686,-0.117231395,-0.0595877615,0.0765994476,-0.0402375991,-0.001067801,-0.0199380656,-0.0460847172,0.00918453381,-0.0409030138,-0.118871789,-0.0871827804,-0.00868982936,-0.0306282894,-0.0317958769,-0.0712083338,0.0777287794,0.062789849,0.0519963393,0.0104729912,-0.0739074163,0.00979408389,0.0442450196,0.119101356,-0.0165237948,-0.117788991,0.0350244508,0.211224918,-0.0313266363,-0.0688797337,-0.044097125,-0.0271669453,0.172195122,0.0343799835,0.054155823,-0.0186696363,0.0437796878,-0.00182613412,-0.048553825,-0.116661636,-0.0760691446,-0.119005341,0.0905544513,0.117948326,-0.0558291295,0.0352724435,-0.198541287,0.0404030696,0.0539202981,-0.00943769707,-0.0526993954,0.0583048533,0.0280162046,-0.0247091557,-0.036715968,0.101919188,-0.0393925161,-0.0381433314,-0.108548495,-0.0153753272,0.114501064,0.089840993,-0.0479687355,-0.0638536201,0.00267527922,-0.0897993748,-0.0930366051,0.081973516,0.0689128269,0.0452086904,0.01727858,0.11702909,0.115668622,-0.172922846,-0.0712695412,-0.0513283218,-0.15590385,0.187039724,0.0667009963,-0.088287544,-0.079661263,-0.0162634851,0.045978935,0.192090642,0.063453332,-0.0682340262,-0.0456557389,0.0293411164,0.0723385634,0.157284315,0.0459243752,0.0331673473,0.0760238443,-0.0691276879,-0.0289042231,0.0941559881,0.347590299,0.0901036165,0.0824192087,-0.0191126762,-0.0671921933,-0.156678824,-0.111337738,0.0453233512,0.0240938456,0.040252291,0.0296911413,0.186502234,0.162943117,-0.0191133111,-0.000856149002,-0.0874716318,-0.0552509189,-0.0924477746,0.114739963,-0.109156634,0.138694756,-0.00507450529,-0.151440158,0.0265065027,-0.0541229248,-0.0566889317,0.0468371546,-0.0320553172,-0.0606782956,-0.0125042319,0.0369664208,0.0594835437
Sisko,-0.0123295808,0.176673545,-0.177916329,-0.0882932168,0.0714019572,-0.00136114671,0.000200639778,-0.121975094,-0.0380528774,2.18180271,-0.192698669,0.056974297,0.114602631,-0.046751446,-0.167277148,-0.0626122198,-0.0744555781,1.01616898,-0.201197515,-0.0179369575,0.0546618083,-0.011862678,-0.022843363,-0.0230772457,-0.0292137435,0.0278649056,-0.105158885,-0.0795605218,0.109208254,-0.0877156597,-0.0519843208,0.0703232671,-0.0541260816,0.0748832186,0.0595296563,-0.0494536108,0.0525728686,0.0754912797,-0.0552661513,-0.0678225699,-0.0360704624,0.0169117434,0.0220411627,-0.104358541,0.0545301711,0.054406685,-0.161323904,-0.0276955915,-0.0126751362,0.00392921045,-0.0330436594,0.0224271346,0.0128928283,-0.00833100529,0.072668105,0.00696906046,-0.0262288348,-0.0776092978,0.0317615667,-0.054760721,-0.059811965,-0.0611163368,-0.00613701053,0.183009388,0.0431215101,-0.0692902492,-0.0248349695,0.0816255191,0.0501759405,0.129449828,0.0484290357,0.046749533,0.233403661,-0.0163532824,0.0935872955,0.0460415727,0.100681092,-0.0875011246,-0.0575436989,0.216375457,-0.0330801002,0.0545840225,-0.144004461,0.0188405047,0.0269021315,-0.207457604,0.0960423843,-0.23933355,0.264991004,0.058170279,-0.105073459,0.00297619172,-0.0422437005,0.0555493187,0.0987376079,-0.0247497394,-0.0355499598,-0.103487054,-0.0623079815,0.0126926277,-0.0417880121,0.0536805732,-0.0639541326,-0.0588786946,0.103256392,-0.61829175,0.107759728,-0.0219127084,-0.00448261543,0.045949082,0.0513797422,-0.164158365,0.14163471,-0.105258296,0.0444016279,-0.017799759,0.0223750084,-0.0307676834,-0.0497471459,-0.0580273514,0.0914689979,-0.0598344537,0.0422826314,0.000495330462,0.026325463,0.0724265803,-0.0376861932,-0.151954953,0.0425791738,-0.0228191111,-0.00858653453,-0.041551815,-0.117516168,0.0409493411,0.084468335,0.0431295096,0.00153028511,-0.0094213626,-0.0211489976,-0.0273110533,-1.32343885,0.120954784,0.0998905734,0.00124605132,0.0216702252,-0.0282364063,-0.0971302041,0.0682334527,-0.0490935602,-0.0767384174,-0.031625752,0.0495061004,0.0830611448,0.0183934407,-0.0423893438,-0.0252447321,-0.0653202474,-0.047914284,0.00225282139,-0.028124512,-0.0270138161,0.0388286552,-0.0728936548,-0.0398645605,-0.0325983567,-0.111503857,0.0786418604,-0.0608453703,0.144460705,0.0164987699,-0.0316304566,-0.0296846661,0.0442879225,-0.116033025,-0.055289287,0.0763957475,-0.0441032325,-0.000848560003,-0.0299450572,-0.0488296706,0.00789564943,-0.0506955925,-0.122576765,-0.0885767715,-0.0117008601,-0.0237698321,-0.0333146379,-0.0661652005,0.0766844142,0.0568032696,0.0442711289,0.0162489043,-0.0787761215,0.00461906267,0.0489342703,0.110137754,-0.00919844964,-0.127025947,0.0262706631,0.210407452,-0.0373867195,-0.0583703488,-0.0486155508,-0.030909956,0.171906519,0.0259906168,0.0559560041,-0.0172209519,0.0444662824,1.54443892e-05,-0.0552689909,-0.100806056,-0.0728487972,-0.116244229,0.0865502258,0.11578261,-0.0615331263,0.0244580694,-0.187317566,0.0460570205,0.0534107329,-0.000693275472,-0.0481646429,0.0555769313,0.020192244,-0.0129772148,-0.0341093539,0.103623424,-0.0346202796,-0.0414829591,-0.114318948,-0.00378977914,0.108788593,0.0953659345,-0.066048376,-0.0671690362,-0.00571557431,-0.0900939092,-0.0878689231,0.0864200383,0.0740036318,0.0470225803,0.013694778,0.104833452,0.118546606,-0.168674506,-0.0625411474,-0.0549623764,-0.14524437,0.181202689,0.0753674262,-0.0778499359,-0.0695777338,-0.0192944059,0.0455423047,0.182554438,0.0627989026,-0.0685507784,-0.0469260638,0.0234734176,0.0838898754,0.148825004,0.0405120158,0.045080438,0.0622931129,-0.0684800096,-0.0273167903,0.0843049756,0.33712597,0.0755052019,0.0744636694,-0.0252752322,-0.0637073401,-0.137939697,-0.11039368,0.0431182552,0.0209668716,0.0452835111,0.02726097,0.179042241,0.169186805,-0.012851632,0.00967817632,-0.0870126597,-0.0598541867,-0.0823899188,0.109575653,-0.09752381,0.13927357,-0.011127788,-0.140464436,0.0271193604,-0.0565762022,-0.0575628368,0.0482790233,-0.0329569256,-0.047622019,-0.0136868235,0.0282061118,0.0612202975
Picard,-0.0194637725,0.172056397,-0.161701589,-0.0854408107,0.0665294147,0.0107110329,0.000224582869,-0.11780283,-0.0372559006,2.12655446,-0.182355821,0.0500230696,0.10530789,-0.0388472804,-0.154974978,-0.0691986418,-0.071009193,1.06364011,-0.195035674,-0.0199461762,0.0366078415,-0.0209806107,-0.0357117443,-0.0248719581,-0.00835132462,0.0311066451,-0.0935335274,-0.0657180356,0.095033148,-0.0637853287,-0.0389885686,0.0543064081,-0.0475215212,0.079617368,0.0393870706,-0.0528612121,0.0504415692,0.0635180658,-0.0530347168,-0.0733454549,-0.0315985147,0.011244182,0.0325342763,-0.0960484527,0.0416227557,0.0431566786,-0.148780224,-0.0195191369,-0.00351041043,0.0145658838,-0.015002039,0.0159389778,0.00630171901,-0.00505648499,0.0533482078,0.0119413714,-0.0173421239,-0.0659692526,0.0326076951,-0.0547963981,-0.05421955,-0.03660763,0.0108712277,0.169045114,0.029026607,-0.050066721,-0.0198835686,0.0772972007,0.0393412412,0.11611297,0.045448988,0.0365582827,0.216417937,-0.0196528538,0.0909519721,0.0347864466,0.0828405027,-0.0879515049,-0.046996814,0.218545017,-0.0464714125,0.0506869006,-0.134439446,0.0324190342,0.0337819151,-0.219728743,0.0876737618,-0.211529342,0.244966981,0.0551019638,-0.0924581727,0.0130327841,-0.0355273146,0.0496493985,0.0864036219,-0.0420097034,-0.0522956309,-0.100876,-0.0693658865,0.0171296777,-0.0391477362,0.0449671918,-0.0706434635,-0.0441034033,0.0814835752,-0.64896633,0.095712184,-0.0161278286,0.00620165073,0.0476566037,0.0440918544,-0.140846669,0.128851766,-0.109662274,0.0416093408,-0.0127825408,0.0256127473,-0.0316008825,-0.0469826884,-0.0616885938,0.0780809037,-0.0394769068,0.0366708045,0.0141352195,0.00794350593,0.0655025557,-0.0325936237,-0.145184823,0.0417364139,-0.0168571395,0.0064204227,-0.0433055313,-0.107137932,0.0230218537,0.0720281105,0.0561837249,0.00102501496,-0.017693896,-0.00919962738,-0.0225255874,-1.20127978,0.120204447,0.103723006,0.00357514548,0.0255703598,-0.0162084457,-0.082979122,0.0546295982,-0.0485087484,-0.0711238032,-0.0263204223,0.0420963283,0.0873096163,0.0324167558,-0.0308002115,-0.0121953576,-0.0663714731,-0.0423770169,0.00547521418,-0.0252550245,-0.00692565165,0.0298024769,-0.0608520935,-0.0444729354,-0.0317957057,-0.100274123,0.0765884435,-0.0542592741,0.13136374,0.0221271451,-0.0226033513,-0.0220428555,0.0432901527,-0.0921459891,-0.055674738,0.0806704277,-0.0292955867,-0.0114609557,-0.0343906623,-0.044862872,0.00569978434,-0.0451403629,-0.0918856643,-0.0919805507,-0.0143438862,-0.0281772098,-0.0362453885,-0.0547037249,0.0645603903,0.0473903227,0.0364121314,0.0177408619,-0.069295058,0.0210898085,0.0286983422,0.0972973609,-0.00389826606,-0.119303633,0.0185081759,0.213685996,-0.0394506411,-0.0539146841,-0.0456495531,-0.0149362648,0.164429016,0.0170779965,0.0476477942,-0.0100657729,0.0288098224,0.00113807812,-0.0592157142,-0.093678808,-0.0699576088,-0.108766147,0.0884892256,0.107328529,-0.0551870047,0.0423810636,-0.176425656,0.0467933332,0.047074407,0.00830352472,-0.0392559969,0.0648335225,0.0310219947,-0.00942085601,-0.0368549874,0.0915133982,-0.0299566782,-0.0399718359,-0.106841392,0.00560758744,0.0951607988,0.0968646543,-0.0804272933,-0.0572154714,-0.0204131295,-0.082825558,-0.086640697,0.066152017,0.069127938,0.0411616678,0.00899145161,0.0801504724,0.118800895,-0.160334458,-0.0511250534,-0.0641130645,-0.138497898,0.159814264,0.0867771248,-0.0583763932,-0.062670711,-0.0167361608,0.0390093311,0.166813296,0.0761389262,-0.066700538,-0.0368373657,0.0267762728,0.0855869321,0.133848472,0.028133363,0.0498683122,0.0321996946,-0.0741324398,-0.0249385825,0.0840565325,0.34368445,0.0592780316,0.0533659624,-0.0125010887,-0.0430692645,-0.128262853,-0.109014657,0.0402919991,0.0156053061,0.053942447,0.0262080281,0.173717149,0.178298747,-0.00536563664,0.0256420264,-0.096352033,-0.0479953243,-0.0803435055,0.104241714,-0.0905329951,0.145346356,-0.0218987005,-0.136080366,0.0329513818,-0.05546401,-0.049618625,0.0482797776,-0.0227417834,-0.043963219,-0.0178363451,0.000157463906,0.0445076933
Data,-0.0143964174,0.165841481,-0.143905155,-0.0866712592,0.0491899137,0.013785829,-0.00667794654,-0.106307063,-0.0412760008,2.04397425,-0.152935795,0.0715638397,0.101452081,-0.0242331859,-0.125174084,-0.07175697,-0.0578143499,1.12793479,-0.182919238,-0.0288668048,0.00418097374,-0.0396956239,-0.0507235885,-0.0179282857,0.0143795452,0.0287570616,-0.0827745375,-0.0524116217,0.0640670367,-0.0355856211,-0.0531688193,0.0419304685,-0.0462182731,0.0773984694,0.0223816916,-0.0582586366,0.0267722185,0.0557295706,-0.0404906766,-0.0812436741,-0.0052391845,0.000312980571,0.0377275782,-0.0784044578,0.0491530768,0.0182255819,-0.133461076,-0.0143378947,-0.0108023552,0.00647246767,0.00117888598,0.0262994531,-0.00465446888,0.0111262103,0.0317587664,0.00967268366,-0.00141602281,-0.054182396,0.024818668,-0.0507877238,-0.0374866365,-0.0108222578,0.0276750946,0.163399335,-0.012780746,-0.0566916303,-0.00483431687,0.0487101629,0.0178824257,0.116523129,0.0404136544,0.0197457291,0.184094898,-0.0193514524,0.0779565493,0.0140343564,0.0590176528,-0.0761494244,-0.0468287107,0.19757347,-0.0594822626,0.0498698612,-0.119621419,0.0293649741,0.05371654,-0.247918027,0.0819613703,-0.155223086,0.193415157,0.0544940456,-0.0769918554,0.0351110119,-0.043218407,0.0459935184,0.0815905903,-0.0620231264,-0.0237325573,-0.0757216362,-0.0844926096,0.0111923161,-0.0347696121,0.0323582523,-0.0784562838,-0.0228367806,0.0759422878,-0.729367777,0.0630776431,-0.00349332461,0.0131634657,0.0443963415,0.0214131631,-0.117487038,0.102490869,-0.111790704,0.0249830308,-0.00797962294,0.00995653842,-0.0166888184,-0.0424677541,-0.0587316654,0.0558390073,-0.0262285072,0.0323896665,0.0022091824,-0.0136714457,0.0644428672,-0.0273867517,-0.1294215,0.0220074973,-0.00995363142,0.0213451932,-0.0322545346,-0.10948547,0.0144676267,0.0815112278,0.0541325709,0.00200448601,-0.00516678567,0.00749349456,-0.0140671472,-1.06203437,0.125455527,0.0918504587,0.0172521082,0.0314170881,0.000736983824,-0.0735683905,0.0281642572,-0.0210199995,-0.0625319131,-0.0322530783,0.0253540135,0.0926661384,0.054416446,-0.0363233644,-0.00416452327,-0.0717703887,-0.0139108031,0.00023292118,-0.0410962994,0.0272721278,0.00377993537,-0.0226092804,-0.0472345548,-0.0562885622,-0.0993990522,0.0625415377,-0.0410807202,0.119887352,0.0174458931,-0.00419555216,-0.019537064,0.0370944214,-0.0943997922,-0.0651636737,0.0656759911,-0.016620081,-0.0263947316,-0.0332324547,-0.0675246082,-0.0203845467,-0.0263740235,-0.0850505476,-0.0877099763,-0.0385688898,-0.0381500779,-0.028957309,-0.0377297007,0.0722526065,0.0298483595,0.0305708528,0.0137985803,-0.0779590922,0.0343028191,0.0182160738,0.0897729231,-0.00879767335,-0.114838996,-0.0315022126,0.178440577,-0.0295880748,-0.045841855,-0.0441077099,0.0228478565,0.158151669,0.00676913961,0.0352538029,-0.010239767,0.0114126687,0.00179352239,-0.0588705332,-0.0709990328,-0.0652261627,-0.120131645,0.076006033,0.0923591137,-0.0544504157,0.0443632278,-0.132730306,0.0465558128,0.0578438164,0.00539015426,-0.0184670467,0.0638453974,0.0198555762,-0.0105157726,-0.0128700838,0.0746027816,-0.0125689934,-0.0190271692,-0.0739323624,0.0030275225,0.0749378595,0.0962179701,-0.0879084862,-0.0537675555,-0.030748338,-0.0671174218,-0.084423971,0.0554227839,0.0515887893,0.0485937457,0.0144465083,0.0733286823,0.101284825,-0.147977556,-0.0393919678,-0.0601442071,-0.121964401,0.116445737,0.0724675187,-0.0350371506,-0.0360685328,-0.0170493596,0.0492242938,0.164485141,0.0840870441,-0.0476728692,-0.0312508687,0.0155775279,0.104875996,0.112048906,0.0190388162,0.0539256978,0.00133967457,-0.0615199524,-0.00986336977,0.0715768279,0.343127825,0.0220526164,0.0699637197,-0.00373717967,-0.0544796188,-0.122916558,-0.105777608,0.0267549271,0.00573948859,0.0511409213,0.0178389187,0.171831497,0.201756362,0.0110482434,0.0269235375,-0.0919015704,-0.0497954378,-0.0811438012,0.0706530791,-0.0868340162,0.164467331,-0.0175157424,-0.136856169,0.0311339603,-0.0526266403,-0.0481480863,0.0199301225,0.00268003109,-0.0390074676,-0.00607025567,-0.0310831449,0.0342014568
Animated_Spock,-0.0155222947,0.166033596,-0.144110426,-0.0751274079,0.0598026104,0.00628453679,-0.00852986984,-0.081710197,-0.0493173376,2.18578219,-0.144313842,0.0598379746,0.102021113,-0.0259779934,-0.13223283,-0.0830335841,-0.0695186928,1.13375807,-0.188703835,-0.032962203,-0.0005626661,-0.0362419821,-0.0538198277,-0.0224300921,0.00582843181,0.0253604669,-0.0840296671,-0.0629671067,0.0684656501,-0.0472513177,-0.0634994507,0.0534007438,-0.052978497,0.0702238455,0.0382286273,-0.0541489236,0.0423489325,0.0543189533,-0.044389002,-0.0754039362,-0.0152756749,0.0157012846,0.0446116775,-0.0811354741,0.0634442493,0.00203632819,-0.138803497,-0.00429180358,-0.0046493439,0.00870097894,-0.00581576955,0.0204650871,-0.00802789442,0.000906866626,0.0384490974,0.00170242763,-0.0101698861,-0.0582126379,0.0388662443,-0.0550649986,-0.0324606523,-0.0135953929,0.0284251943,0.165736124,-0.0138255646,-0.0471633561,-0.0173481833,0.0595110878,0.017858969,0.117900953,0.0315978043,0.0128213661,0.182346553,-0.0158444811,0.0840253755,0.0172452275,0.0592561141,-0.0797799975,-0.0325987786,0.201817006,-0.0528356545,0.0525422059,-0.123362958,0.0257726572,0.0611765832,-0.264311522,0.0608764403,-0.146613643,0.20305106,0.0590230674,-0.0812252238,0.0452112257,-0.0414834581,0.0424191542,0.0915000066,-0.0652249604,-0.035846062,-0.0798059702,-0.0794742107,0.0120891184,-0.0280836374,0.0330046974,-0.0877408981,-0.0370225385,0.0717572868,-0.739419401,0.060636539,0.00837726332,0.0216541644,0.0409941152,0.0397048742,-0.120895654,0.0933484137,-0.121353485,0.0250754189,0.00108301325,0.010460644,-0.0098227188,-0.0419134758,-0.0537869446,0.0452676304,-0.030800391,0.0377402455,0.00394814368,-0.0156487748,0.0564974621,-0.0266134553,-0.131544963,0.023912441,-0.0129597206,0.015377637,-0.0375607014,-0.115324035,0.00796421897,0.0766113773,0.0532766245,0.00422870275,-0.0220145341,0.00843135733,-0.0196927935,-1.15834284,0.136445612,0.11907436,0.0212200042,0.0338401087,-0.00276378659,-0.0598204061,0.0253479462,-0.00612222403,-0.0667823851,-0.0242312141,0.0186452195,0.106707931,0.050508257,-0.0450415425,-0.00251471926,-0.0879705399,-0.00803487748,-0.00814479124,-0.0359264463,0.033658281,0.0171111375,-0.0325964391,-0.0475703664,-0.0411715321,-0.107141025,0.089905642,-0.0381507091,0.1284547,0.00770977,0.00347463717,-0.0108586717,0.0381394848,-0.0850977749,-0.0653614253,0.0680705607,-0.016240688,-0.0358429328,-0.0308553129,-0.0687635541,0.00048940978,-0.0285051595,-0.0755110383,-0.0881171748,-0.0371528007,-0.0475607291,-0.0329259485,-0.0325032547,0.0742721632,0.0327570997,0.0326907448,0.0228544697,-0.0643528998,0.0524968989,0.0147310831,0.0919170901,0.0013952814,-0.0952511877,-0.019900009,0.200071454,-0.0397036411,-0.0488226376,-0.0426938608,0.0215417929,0.161223561,0.0251788143,0.0401772112,-0.0137567623,0.0133896787,-0.00157138647,-0.062210124,-0.0870024264,-0.0572716407,-0.116497926,0.0793811008,0.103918619,-0.0374402925,0.0541565679,-0.141211733,0.0390336663,0.0573967695,0.00172031252,-0.0262851007,0.0583422445,0.027304193,-0.0170296729,-0.0223997124,0.0913140103,-0.0196140818,-0.00741641689,-0.0758497268,0.00215337472,0.0892824605,0.0974658355,-0.0656231269,-0.0478412136,-0.0294705685,-0.0616788939,-0.0877796486,0.0431056172,0.0529962592,0.0536435619,0.00258380221,0.0754812509,0.102006853,-0.136216506,-0.0739246458,-0.0797861516,-0.136273444,0.11945799,0.0775837749,-0.0403418504,-0.034302298,-0.0252975971,0.0374924466,0.183303371,0.0784904286,-0.0491712093,-0.0328864902,0.0325860642,0.104592115,0.132772326,0.0193018857,0.0608310141,0.0145735526,-0.0533984937,-0.0263341628,0.0722483248,0.331106812,0.0314102769,0.0544747822,-0.000901996566,-0.0590762869,-0.130130962,-0.110735573,0.0248696543,0.00210308237,0.072289519,0.019847298,0.17795895,0.197928637,0.0105077,0.0263957717,-0.104198135,-0.0530576743,-0.0893759131,0.0741805583,-0.101277307,0.175336316,-0.0215365067,-0.159634754,0.0249252673,-0.0520504192,-0.0568790101,-0.00354298274,0.0238050036,-0.0403351486,-0.0259150248,-0.017699901,0.0080434652
Animated_Kirk,-0.0304878019,0.177344695,-0.152106494,-0.0867319703,0.0781751946,0.0030742425,-0.0149608105,-0.103218727,-0.0359660126,2.12805104,-0.177088097,0.0285921935,0.118416682,-0.033281453,-0.170196265,-0.0689264014,-0.0597178265,1.08422351,-0.190946892,-0.0195800513,0.0441665016,-0.00644644443,-0.028830152,-0.0233141389,-0.0120849451,0.0224625189,-0.120007388,-0.0536424816,0.102768093,-0.0586725697,-0.045972012,0.0571265705,-0.0668388009,0.0900536254,0.0393494219,-0.053411074,0.0503425747,0.0883162022,-0.0436120108,-0.0551520362,-0.0366069712,0.00735308649,0.0278444421,-0.0916300863,0.0488303527,0.0458699539,-0.137578756,-0.0207127631,-0.0041531832,0.0148607707,0.00247396738,0.018240612,0.00932157785,0.000331758696,0.0538102537,-0.00131233071,-0.0249783918,-0.0544577427,0.0387323834,-0.0600252263,-0.0494607724,-0.0233399551,0.0224688668,0.166756883,0.0480088294,-0.0544804297,-0.0338630751,0.0880445614,0.0392118134,0.105423115,0.0426892415,0.0239401609,0.22351566,-0.0141353328,0.0998425931,0.0324608944,0.072868377,-0.0890222415,-0.0314532816,0.220090881,-0.0488287397,0.0560237877,-0.127867162,0.0374000371,0.0347170644,-0.23121205,0.128416568,-0.205572903,0.251507729,0.0535248183,-0.0834249258,0.0221048873,-0.0338848345,0.0499658063,0.102286562,-0.0456056781,-0.045883704,-0.100491948,-0.0705935061,0.00944521744,-0.0288765822,0.0338768996,-0.0825870335,-0.0481592007,0.0689995363,-0.661906183,0.108140364,-0.0190289076,0.0040952838,0.0499010049,0.0560972318,-0.141072869,0.135501564,-0.128773436,0.0566501468,-0.00379843754,0.0380758606,-0.0265438296,-0.0610610209,-0.0422587916,0.0718914717,-0.0320086442,0.044323165,0.0135849398,-0.00334124104,0.0427374579,-0.02950597,-0.139906749,0.0387039818,-0.0241262186,0.000252567988,-0.0440627635,-0.103373125,0.00305743329,0.0608065911,0.0566290766,0.00713660568,-0.00416096067,-0.0167148411,-0.0368086398,-1.26947248,0.116399065,0.104540735,-0.00232271361,0.0430536494,0.00539951306,-0.0682388172,0.0539126173,-0.0424474292,-0.0781204328,-0.00992279314,0.0269829612,0.0941246822,0.0423248708,-0.0313350707,-0.00778315915,-0.0629829243,-0.0411606953,0.0129469745,0.00341270911,0.0100829266,0.0351991206,-0.092411153,-0.038143903,-0.014607125,-0.108710542,0.0957650468,-0.0614012703,0.127072528,0.0327440016,-0.00542706391,-0.0102333175,0.0316552073,-0.0811853781,-0.0619086362,0.089630492,-0.0147637511,-0.00492468616,-0.0204953756,-0.0625005215,0.010057563,-0.0371128656,-0.0866221339,-0.0861473531,-0.00417362805,-0.0232601445,-0.0254346989,-0.0541632995,0.0781075507,0.0373276435,0.0447167344,0.0106193358,-0.0486256741,0.0218476616,0.00449019484,0.121660389,-0.00819772203,-0.106848903,0.0220376682,0.224804208,-0.0623943619,-0.0557785518,-0.0329299346,-0.00815744884,0.172208428,0.0182324201,0.0403930843,-0.02300236,0.0286663193,-0.0107288212,-0.0625431314,-0.101338349,-0.0645838901,-0.0972683504,0.0920217335,0.101744138,-0.0489993207,0.0600035004,-0.175382435,0.0370462015,0.0489389338,0.00387947191,-0.0453308113,0.0601950176,0.0305809863,-0.0221566465,-0.0488035195,0.0947971269,-0.018414123,-0.0313763432,-0.0957196131,0.00614123465,0.100223459,0.0939134508,-0.0718591958,-0.0493556038,-0.0199757107,-0.0861653015,-0.0728298798,0.0493585095,0.0691217929,0.0318278633,0.0117953131,0.0755772069,0.111406356,-0.137108773,-0.0796732828,-0.0665257424,-0.15896076,0.146204203,0.090562813,-0.0576290339,-0.0538175888,-0.0174810477,0.0430138186,0.171986461,0.0738991573,-0.0538211502,-0.0398897864,0.0329179242,0.0837690756,0.130762264,0.036100816,0.0492938794,0.0388608985,-0.0798938274,-0.033849366,0.0841378197,0.326907814,0.0722975209,0.0466032475,-0.0115295434,-0.0282991044,-0.123781562,-0.116441287,0.0365768708,0.0135628302,0.0585070252,0.0205002706,0.166007474,0.175115645,-0.0178789273,0.0159211773,-0.0865790918,-0.0462692268,-0.0919182524,0.106806204,-0.108465075,0.143791616,-0.0351548381,-0.153533176,0.0196962543,-0.0437059179,-0.0539061204,0.0179581437,-0.0198810156,-0.0480534211,-0.0119660245,-0.0102026751,0.0257679895
